FANN_FLO_2.1
num_layers=3
learning_rate=0.700000
connection_rate=1.000000
network_type=0
learning_momentum=0.000000
training_algorithm=0
train_error_function=0
train_stop_function=0
cascade_output_change_fraction=0.010000
quickprop_decay=-0.000100
quickprop_mu=1.750000
rprop_increase_factor=1.200000
rprop_decrease_factor=0.500000
rprop_delta_min=0.000000
rprop_delta_max=50.000000
rprop_delta_zero=0.100000
cascade_output_stagnation_epochs=12
cascade_candidate_change_fraction=0.010000
cascade_candidate_stagnation_epochs=12
cascade_max_out_epochs=150
cascade_max_cand_epochs=150
cascade_num_candidate_groups=2
bit_fail_limit=3.49999994039535520000e-001
cascade_candidate_limit=1.00000000000000000000e+003
cascade_weight_multiplier=4.00000005960464480000e-001
cascade_activation_functions_count=10
cascade_activation_functions=3 5 7 8 10 11 14 15 16 17 
cascade_activation_steepnesses_count=4
cascade_activation_steepnesses=2.50000000000000000000e-001 5.00000000000000000000e-001 7.50000000000000000000e-001 1.00000000000000000000e+000 
layer_sizes=6 7 6 
scale_included=0
neurons (num_inputs, activation_function, activation_steepness)=(0, 0, 0.00000000000000000000e+000) (0, 0, 0.00000000000000000000e+000) (0, 0, 0.00000000000000000000e+000) (0, 0, 0.00000000000000000000e+000) (0, 0, 0.00000000000000000000e+000) (0, 0, 0.00000000000000000000e+000) (6, 5, 5.00000000000000000000e-001) (6, 5, 5.00000000000000000000e-001) (6, 5, 5.00000000000000000000e-001) (6, 5, 5.00000000000000000000e-001) (6, 5, 5.00000000000000000000e-001) (6, 5, 5.00000000000000000000e-001) (0, 5, 5.00000000000000000000e-001) (7, 5, 5.00000000000000000000e-001) (7, 5, 5.00000000000000000000e-001) (7, 5, 5.00000000000000000000e-001) (7, 5, 5.00000000000000000000e-001) (7, 5, 5.00000000000000000000e-001) (0, 5, 5.00000000000000000000e-001) 
connections (connected_to_neuron, weight)=(0, -6.59906005859375000000e+000) (1, -8.67023181915283200000e+000) (2, 8.01091575622558590000e+000) (3, -1.06471109390258790000e+000) (4, -1.75322249531745910000e-001) (5, 1.16260015964508060000e+000) (0, 2.49308490753173830000e+000) (1, 2.73980307579040530000e+000) (2, -3.21808147430419920000e+000) (3, -9.15515661239624020000e-001) (4, -3.91910076141357420000e-002) (5, -1.48602262139320370000e-001) (0, 1.64271605014801030000e+000) (1, 1.24432599544525150000e+000) (2, -1.64825940132141110000e+000) (3, -1.28227758407592770000e+000) (4, -5.25024719536304470000e-002) (5, 1.12070655450224880000e-002) (0, 2.97526121139526370000e+000) (1, 3.97780442237854000000e+000) (2, -3.89362573623657230000e+000) (3, 4.18281227350234990000e-001) (4, 2.74961501359939580000e-001) (5, -5.36661505699157710000e-001) (0, 7.85005950927734370000e+000) (1, 7.86578130722045900000e+000) (2, -8.88788890838623050000e+000) (3, -2.88853573799133300000e+000) (4, 3.14433425664901730000e-001) (5, -6.35615289211273190000e-001) (0, 2.88350367546081540000e+000) (1, 4.02074098587036130000e+000) (2, -3.72938323020935060000e+000) (3, 1.15586853027343750000e+000) (4, 7.63262361288070680000e-002) (5, -6.02817893028259280000e-001) (6, -5.37246584892272950000e-001) (7, -1.83269947767257690000e-001) (8, -2.87311941385269170000e-001) (9, 1.18893466889858250000e-001) (10, -6.23200416564941410000e-001) (11, 3.90772223472595210000e-001) (12, 2.59341418743133540000e-001) (6, -4.48869735002517700000e-001) (7, -2.09705039858818050000e-001) (8, -2.51733779907226560000e-001) (9, 1.89216867089271550000e-001) (10, -6.53872191905975340000e-001) (11, 4.50611948966979980000e-001) (12, 2.61737525463104250000e-001) (6, -3.58941882848739620000e-001) (7, -3.45171503722667690000e-002) (8, -3.97803604602813720000e-001) (9, 2.42071226239204410000e-001) (10, -5.52289724349975590000e-001) (11, 3.52064400911331180000e-001) (12, 2.58709937334060670000e-001) (6, -3.66404294967651370000e-001) (7, -2.07123026251792910000e-001) (8, -3.09941768646240230000e-001) (9, 2.41337537765502930000e-001) (10, -5.53869843482971190000e-001) (11, 3.22303652763366700000e-001) (12, 2.60961711406707760000e-001) (6, -9.26127731800079350000e-001) (7, 3.25967252254486080000e-001) (8, 1.49995833635330200000e-001) (9, 4.42342638969421390000e-001) (10, 9.12635505199432370000e-001) (11, 4.39435690641403200000e-001) (12, 4.36954289674758910000e-001) 
