FANN_FLO_2.1
num_layers=3
learning_rate=0.700000
connection_rate=1.000000
network_type=0
learning_momentum=0.000000
training_algorithm=2
train_error_function=0
train_stop_function=0
cascade_output_change_fraction=0.010000
quickprop_decay=-0.000100
quickprop_mu=1.750000
rprop_increase_factor=1.200000
rprop_decrease_factor=0.500000
rprop_delta_min=0.000000
rprop_delta_max=50.000000
rprop_delta_zero=0.100000
cascade_output_stagnation_epochs=12
cascade_candidate_change_fraction=0.010000
cascade_candidate_stagnation_epochs=12
cascade_max_out_epochs=150
cascade_max_cand_epochs=150
cascade_num_candidate_groups=2
bit_fail_limit=3.49999994039535520000e-001
cascade_candidate_limit=1.00000000000000000000e+003
cascade_weight_multiplier=4.00000005960464480000e-001
cascade_activation_functions_count=10
cascade_activation_functions=3 5 7 8 10 11 14 15 16 17 
cascade_activation_steepnesses_count=4
cascade_activation_steepnesses=2.50000000000000000000e-001 5.00000000000000000000e-001 7.50000000000000000000e-001 1.00000000000000000000e+000 
layer_sizes=6 6 6 
scale_included=0
neurons (num_inputs, activation_function, activation_steepness)=(0, 0, 0.00000000000000000000e+000) (0, 0, 0.00000000000000000000e+000) (0, 0, 0.00000000000000000000e+000) (0, 0, 0.00000000000000000000e+000) (0, 0, 0.00000000000000000000e+000) (0, 0, 0.00000000000000000000e+000) (6, 5, 5.00000000000000000000e-001) (6, 5, 5.00000000000000000000e-001) (6, 5, 5.00000000000000000000e-001) (6, 5, 5.00000000000000000000e-001) (6, 5, 5.00000000000000000000e-001) (0, 5, 5.00000000000000000000e-001) (6, 5, 5.00000000000000000000e-001) (6, 5, 5.00000000000000000000e-001) (6, 5, 5.00000000000000000000e-001) (6, 5, 5.00000000000000000000e-001) (6, 5, 5.00000000000000000000e-001) (0, 5, 5.00000000000000000000e-001) 
connections (connected_to_neuron, weight)=(0, 4.56701606512069700000e-001) (1, 4.37060505151748660000e-001) (2, 4.84204053878784180000e-001) (3, 4.13555890321731570000e-001) (4, 4.06768769025802610000e-001) (5, 4.02331501245498660000e-001) (0, 2.85188972949981690000e-001) (1, 2.12898895144462590000e-001) (2, 2.56990730762481690000e-001) (3, 2.85518556833267210000e-001) (4, 2.90102303028106690000e-001) (5, 1.88167467713356020000e-001) (0, -1.30675941705703740000e-001) (1, -1.12652257084846500000e-001) (2, -1.53997480869293210000e-001) (3, -9.99203324317932130000e-002) (4, -2.57067561149597170000e-001) (5, -8.65108966827392580000e-002) (0, 1.70603707432746890000e-001) (1, 1.77183300256729130000e-001) (2, 2.18650609254837040000e-001) (3, 1.73429638147354130000e-001) (4, 1.83195263147354130000e-001) (5, 9.67084690928459170000e-002) (0, 2.91181504726409910000e-001) (1, 3.41871231794357300000e-001) (2, 3.58179807662963870000e-001) (3, 3.80170792341232300000e-001) (4, 2.73237198591232300000e-001) (5, 3.01600217819213870000e-001) (6, -1.75321102142333980000e-001) (7, -1.88637644052505490000e-001) (8, 3.22331160306930540000e-001) (9, -6.15271665155887600000e-002) (10, 4.00479257106781010000e-001) (11, 2.76199460029602050000e-001) (6, -2.64724999666213990000e-001) (7, 9.22396481037139890000e-002) (8, 5.59116601943969730000e-001) (9, -1.33035540580749510000e-001) (10, 2.29068502783775330000e-001) (11, 3.19601982831954960000e-001) (6, -1.77666902542114260000e-001) (7, -1.33079379796981810000e-001) (8, 3.46154749393463130000e-001) (9, -2.24865406751632690000e-001) (10, 3.58753532171249390000e-001) (11, 2.50184208154678340000e-001) (6, -1.62844151258468630000e-001) (7, -2.88043208420276640000e-002) (8, 3.49929869174957280000e-001) (9, -7.13463276624679570000e-002) (10, 4.12120044231414790000e-001) (11, 2.76664704084396360000e-001) (6, 8.36790129542350770000e-002) (7, -9.91277769207954410000e-002) (8, 3.08233231306076050000e-001) (9, -4.59962822496891020000e-002) (10, 3.60298156738281250000e-001) (11, 3.16358953714370730000e-001) 
